digraph Tree {
node [shape=box, style="filled", color="black", fontname="helvetica"] ;
edge [fontname="helvetica"] ;
0 [label="X[36] <= 0.5\ngini = 0.9\nsamples = 1347\nvalue = [141, 139, 133, 138, 143, 134, 129, 131, 126, 133]", fillcolor="#ffffff"] ;
1 [label="X[42] <= 7.5\ngini = 0.542\nsamples = 214\nvalue = [137, 0, 3, 1, 5, 17, 5, 0, 3, 43]", fillcolor="#f1ba92"] ;
0 -> 1 [labeldistance=2.5, labelangle=45, headlabel="True"] ;
2 [label="X[21] <= 7.0\ngini = 0.419\nsamples = 59\nvalue = [1, 0, 1, 1, 0, 13, 0, 0, 0, 43]", fillcolor="#ee7e92"] ;
1 -> 2 ;
3 [label="X[28] <= 5.5\ngini = 0.255\nsamples = 14\nvalue = [1, 0, 1, 0, 0, 12, 0, 0, 0, 0]", fillcolor="#57ace9"] ;
2 -> 3 ;
4 [label="X[27] <= 5.5\ngini = 0.5\nsamples = 2\nvalue = [1, 0, 1, 0, 0, 0, 0, 0, 0, 0]", fillcolor="#ffffff"] ;
3 -> 4 ;
5 [label="gini = 0.0\nsamples = 1\nvalue = [1, 0, 0, 0, 0, 0, 0, 0, 0, 0]", fillcolor="#e58139"] ;
4 -> 5 ;
6 [label="gini = 0.0\nsamples = 1\nvalue = [0, 0, 1, 0, 0, 0, 0, 0, 0, 0]", fillcolor="#7be539"] ;
4 -> 6 ;
7 [label="gini = 0.0\nsamples = 12\nvalue = [0, 0, 0, 0, 0, 12, 0, 0, 0, 0]", fillcolor="#399de5"] ;
3 -> 7 ;
8 [label="X[60] <= 2.0\ngini = 0.086\nsamples = 45\nvalue = [0, 0, 0, 1, 0, 1, 0, 0, 0, 43]", fillcolor="#e64260"] ;
2 -> 8 ;
9 [label="gini = 0.0\nsamples = 1\nvalue = [0, 0, 0, 0, 0, 1, 0, 0, 0, 0]", fillcolor="#399de5"] ;
8 -> 9 ;
10 [label="X[9] <= 10.5\ngini = 0.044\nsamples = 44\nvalue = [0, 0, 0, 1, 0, 0, 0, 0, 0, 43]", fillcolor="#e63e5c"] ;
8 -> 10 ;
11 [label="gini = 0.0\nsamples = 43\nvalue = [0, 0, 0, 0, 0, 0, 0, 0, 0, 43]", fillcolor="#e53958"] ;
10 -> 11 ;
12 [label="gini = 0.0\nsamples = 1\nvalue = [0, 0, 0, 1, 0, 0, 0, 0, 0, 0]", fillcolor="#39e55e"] ;
10 -> 12 ;
13 [label="X[21] <= 0.5\ngini = 0.227\nsamples = 155\nvalue = [136, 0, 2, 0, 5, 4, 5, 0, 3, 0]", fillcolor="#e89152"] ;
1 -> 13 ;
14 [label="X[3] <= 4.5\ngini = 0.729\nsamples = 15\nvalue = [0, 0, 2, 0, 5, 4, 4, 0, 0, 0]", fillcolor="#edfdfa"] ;
13 -> 14 ;
15 [label="gini = 0.0\nsamples = 5\nvalue = [0, 0, 0, 0, 5, 0, 0, 0, 0, 0]", fillcolor="#39e5c5"] ;
14 -> 15 ;
16 [label="X[45] <= 1.0\ngini = 0.64\nsamples = 10\nvalue = [0, 0, 2, 0, 0, 4, 4, 0, 0, 0]", fillcolor="#ffffff"] ;
14 -> 16 ;
17 [label="X[35] <= 10.5\ngini = 0.444\nsamples = 6\nvalue = [0, 0, 2, 0, 0, 4, 0, 0, 0, 0]", fillcolor="#9ccef2"] ;
16 -> 17 ;
18 [label="gini = 0.0\nsamples = 4\nvalue = [0, 0, 0, 0, 0, 4, 0, 0, 0, 0]", fillcolor="#399de5"] ;
17 -> 18 ;
19 [label="gini = 0.0\nsamples = 2\nvalue = [0, 0, 2, 0, 0, 0, 0, 0, 0, 0]", fillcolor="#7be539"] ;
17 -> 19 ;
20 [label="gini = 0.0\nsamples = 4\nvalue = [0, 0, 0, 0, 0, 0, 4, 0, 0, 0]", fillcolor="#3c39e5"] ;
16 -> 20 ;
21 [label="X[28] <= 4.5\ngini = 0.056\nsamples = 140\nvalue = [136, 0, 0, 0, 0, 0, 1, 0, 3, 0]", fillcolor="#e6853f"] ;
13 -> 21 ;
22 [label="gini = 0.0\nsamples = 136\nvalue = [136, 0, 0, 0, 0, 0, 0, 0, 0, 0]", fillcolor="#e58139"] ;
21 -> 22 ;
23 [label="X[59] <= 14.0\ngini = 0.375\nsamples = 4\nvalue = [0, 0, 0, 0, 0, 0, 1, 0, 3, 0]", fillcolor="#ee7bd5"] ;
21 -> 23 ;
24 [label="gini = 0.0\nsamples = 1\nvalue = [0, 0, 0, 0, 0, 0, 1, 0, 0, 0]", fillcolor="#3c39e5"] ;
23 -> 24 ;
25 [label="gini = 0.0\nsamples = 3\nvalue = [0, 0, 0, 0, 0, 0, 0, 0, 3, 0]", fillcolor="#e539c0"] ;
23 -> 25 ;
26 [label="X[21] <= 0.5\ngini = 0.888\nsamples = 1133\nvalue = [4, 139, 130, 137, 138, 117, 124, 131, 123, 90]", fillcolor="#ffffff"] ;
0 -> 26 [labeldistance=2.5, labelangle=-45, headlabel="False"] ;
27 [label="X[42] <= 8.5\ngini = 0.744\nsamples = 342\nvalue = [0, 29, 38, 10, 28, 109, 122, 3, 3, 0]", fillcolor="#f4f4fe"] ;
26 -> 27 ;
28 [label="X[5] <= 1.5\ngini = 0.617\nsamples = 183\nvalue = [0, 24, 29, 10, 6, 106, 2, 3, 3, 0]", fillcolor="#9ccef2"] ;
27 -> 28 ;
29 [label="X[27] <= 13.5\ngini = 0.713\nsamples = 73\nvalue = [0, 24, 29, 9, 4, 1, 2, 2, 2, 0]", fillcolor="#f2fceb"] ;
28 -> 29 ;
30 [label="X[34] <= 4.5\ngini = 0.506\nsamples = 42\nvalue = [0, 2, 29, 2, 4, 1, 1, 2, 1, 0]", fillcolor="#a8ee7d"] ;
29 -> 30 ;
31 [label="X[54] <= 1.0\ngini = 0.121\nsamples = 31\nvalue = [0, 2, 29, 0, 0, 0, 0, 0, 0, 0]", fillcolor="#84e747"] ;
30 -> 31 ;
32 [label="gini = 0.0\nsamples = 2\nvalue = [0, 2, 0, 0, 0, 0, 0, 0, 0, 0]", fillcolor="#e2e539"] ;
31 -> 32 ;
33 [label="gini = 0.0\nsamples = 29\nvalue = [0, 0, 29, 0, 0, 0, 0, 0, 0, 0]", fillcolor="#7be539"] ;
31 -> 33 ;
34 [label="X[37] <= 15.5\ngini = 0.777\nsamples = 11\nvalue = [0, 0, 0, 2, 4, 1, 1, 2, 1, 0]", fillcolor="#d3f9f2"] ;
30 -> 34 ;
35 [label="X[30] <= 1.0\ngini = 0.776\nsamples = 7\nvalue = [0, 0, 0, 2, 0, 1, 1, 2, 1, 0]", fillcolor="#ffffff"] ;
34 -> 35 ;
36 [label="X[36] <= 14.0\ngini = 0.72\nsamples = 5\nvalue = [0, 0, 0, 2, 0, 1, 1, 0, 1, 0]", fillcolor="#cef8d7"] ;
35 -> 36 ;
37 [label="X[27] <= 10.0\ngini = 0.667\nsamples = 3\nvalue = [0, 0, 0, 0, 0, 1, 1, 0, 1, 0]", fillcolor="#ffffff"] ;
36 -> 37 ;
38 [label="gini = 0.0\nsamples = 1\nvalue = [0, 0, 0, 0, 0, 0, 0, 0, 1, 0]", fillcolor="#e539c0"] ;
37 -> 38 ;
39 [label="X[19] <= 8.0\ngini = 0.5\nsamples = 2\nvalue = [0, 0, 0, 0, 0, 1, 1, 0, 0, 0]", fillcolor="#ffffff"] ;
37 -> 39 ;
40 [label="gini = 0.0\nsamples = 1\nvalue = [0, 0, 0, 0, 0, 1, 0, 0, 0, 0]", fillcolor="#399de5"] ;
39 -> 40 ;
41 [label="gini = 0.0\nsamples = 1\nvalue = [0, 0, 0, 0, 0, 0, 1, 0, 0, 0]", fillcolor="#3c39e5"] ;
39 -> 41 ;
42 [label="gini = 0.0\nsamples = 2\nvalue = [0, 0, 0, 2, 0, 0, 0, 0, 0, 0]", fillcolor="#39e55e"] ;
36 -> 42 ;
43 [label="gini = 0.0\nsamples = 2\nvalue = [0, 0, 0, 0, 0, 0, 0, 2, 0, 0]", fillcolor="#a339e5"] ;
35 -> 43 ;
44 [label="gini = 0.0\nsamples = 4\nvalue = [0, 0, 0, 0, 4, 0, 0, 0, 0, 0]", fillcolor="#39e5c5"] ;
34 -> 44 ;
45 [label="X[46] <= 3.0\ngini = 0.443\nsamples = 31\nvalue = [0, 22, 0, 7, 0, 0, 1, 0, 1, 0]", fillcolor="#edef83"] ;
29 -> 45 ;
46 [label="gini = 0.0\nsamples = 22\nvalue = [0, 22, 0, 0, 0, 0, 0, 0, 0, 0]", fillcolor="#e2e539"] ;
45 -> 46 ;
47 [label="X[43] <= 8.0\ngini = 0.37\nsamples = 9\nvalue = [0, 0, 0, 7, 0, 0, 1, 0, 1, 0]", fillcolor="#6aec86"] ;
45 -> 47 ;
48 [label="gini = 0.0\nsamples = 7\nvalue = [0, 0, 0, 7, 0, 0, 0, 0, 0, 0]", fillcolor="#39e55e"] ;
47 -> 48 ;
49 [label="X[36] <= 15.5\ngini = 0.5\nsamples = 2\nvalue = [0, 0, 0, 0, 0, 0, 1, 0, 1, 0]", fillcolor="#ffffff"] ;
47 -> 49 ;
50 [label="gini = 0.0\nsamples = 1\nvalue = [0, 0, 0, 0, 0, 0, 0, 0, 1, 0]", fillcolor="#e539c0"] ;
49 -> 50 ;
51 [label="gini = 0.0\nsamples = 1\nvalue = [0, 0, 0, 0, 0, 0, 1, 0, 0, 0]", fillcolor="#3c39e5"] ;
49 -> 51 ;
52 [label="X[18] <= 4.5\ngini = 0.088\nsamples = 110\nvalue = [0, 0, 0, 1, 2, 105, 0, 1, 1, 0]", fillcolor="#42a2e6"] ;
28 -> 52 ;
53 [label="X[59] <= 3.5\ngini = 0.667\nsamples = 3\nvalue = [0, 0, 0, 1, 1, 0, 0, 1, 0, 0]", fillcolor="#ffffff"] ;
52 -> 53 ;
54 [label="gini = 0.0\nsamples = 1\nvalue = [0, 0, 0, 0, 1, 0, 0, 0, 0, 0]", fillcolor="#39e5c5"] ;
53 -> 54 ;
55 [label="X[26] <= 5.5\ngini = 0.5\nsamples = 2\nvalue = [0, 0, 0, 1, 0, 0, 0, 1, 0, 0]", fillcolor="#ffffff"] ;
53 -> 55 ;
56 [label="gini = 0.0\nsamples = 1\nvalue = [0, 0, 0, 0, 0, 0, 0, 1, 0, 0]", fillcolor="#a339e5"] ;
55 -> 56 ;
57 [label="gini = 0.0\nsamples = 1\nvalue = [0, 0, 0, 1, 0, 0, 0, 0, 0, 0]", fillcolor="#39e55e"] ;
55 -> 57 ;
58 [label="X[24] <= 0.5\ngini = 0.037\nsamples = 107\nvalue = [0, 0, 0, 0, 1, 105, 0, 0, 1, 0]", fillcolor="#3d9fe5"] ;
52 -> 58 ;
59 [label="X[16] <= 0.5\ngini = 0.019\nsamples = 106\nvalue = [0, 0, 0, 0, 0, 105, 0, 0, 1, 0]", fillcolor="#3b9ee5"] ;
58 -> 59 ;
60 [label="gini = 0.0\nsamples = 105\nvalue = [0, 0, 0, 0, 0, 105, 0, 0, 0, 0]", fillcolor="#399de5"] ;
59 -> 60 ;
61 [label="gini = 0.0\nsamples = 1\nvalue = [0, 0, 0, 0, 0, 0, 0, 0, 1, 0]", fillcolor="#e539c0"] ;
59 -> 61 ;
62 [label="gini = 0.0\nsamples = 1\nvalue = [0, 0, 0, 0, 1, 0, 0, 0, 0, 0]", fillcolor="#39e5c5"] ;
58 -> 62 ;
63 [label="X[54] <= 1.5\ngini = 0.407\nsamples = 159\nvalue = [0, 5, 9, 0, 22, 3, 120, 0, 0, 0]", fillcolor="#7471ec"] ;
27 -> 63 ;
64 [label="X[37] <= 5.5\ngini = 0.614\nsamples = 38\nvalue = [0, 5, 2, 0, 22, 3, 6, 0, 0, 0]", fillcolor="#9cf2e2"] ;
63 -> 64 ;
65 [label="X[53] <= 8.5\ngini = 0.675\nsamples = 13\nvalue = [0, 5, 2, 0, 1, 0, 5, 0, 0, 0]", fillcolor="#ffffff"] ;
64 -> 65 ;
66 [label="X[36] <= 12.5\ngini = 0.531\nsamples = 8\nvalue = [0, 5, 2, 0, 1, 0, 0, 0, 0, 0]", fillcolor="#f0f29c"] ;
65 -> 66 ;
67 [label="X[46] <= 2.0\ngini = 0.444\nsamples = 3\nvalue = [0, 0, 2, 0, 1, 0, 0, 0, 0, 0]", fillcolor="#bdf29c"] ;
66 -> 67 ;
68 [label="gini = 0.0\nsamples = 2\nvalue = [0, 0, 2, 0, 0, 0, 0, 0, 0, 0]", fillcolor="#7be539"] ;
67 -> 68 ;
69 [label="gini = 0.0\nsamples = 1\nvalue = [0, 0, 0, 0, 1, 0, 0, 0, 0, 0]", fillcolor="#39e5c5"] ;
67 -> 69 ;
70 [label="gini = 0.0\nsamples = 5\nvalue = [0, 5, 0, 0, 0, 0, 0, 0, 0, 0]", fillcolor="#e2e539"] ;
66 -> 70 ;
71 [label="gini = 0.0\nsamples = 5\nvalue = [0, 0, 0, 0, 0, 0, 5, 0, 0, 0]", fillcolor="#3c39e5"] ;
65 -> 71 ;
72 [label="X[44] <= 7.5\ngini = 0.278\nsamples = 25\nvalue = [0, 0, 0, 0, 21, 3, 1, 0, 0, 0]", fillcolor="#5dead0"] ;
64 -> 72 ;
73 [label="gini = 0.0\nsamples = 3\nvalue = [0, 0, 0, 0, 0, 3, 0, 0, 0, 0]", fillcolor="#399de5"] ;
72 -> 73 ;
74 [label="X[41] <= 1.0\ngini = 0.087\nsamples = 22\nvalue = [0, 0, 0, 0, 21, 0, 1, 0, 0, 0]", fillcolor="#42e6c8"] ;
72 -> 74 ;
75 [label="gini = 0.0\nsamples = 1\nvalue = [0, 0, 0, 0, 0, 0, 1, 0, 0, 0]", fillcolor="#3c39e5"] ;
74 -> 75 ;
76 [label="gini = 0.0\nsamples = 21\nvalue = [0, 0, 0, 0, 21, 0, 0, 0, 0, 0]", fillcolor="#39e5c5"] ;
74 -> 76 ;
77 [label="X[58] <= 8.5\ngini = 0.109\nsamples = 121\nvalue = [0, 0, 7, 0, 0, 0, 114, 0, 0, 0]", fillcolor="#4845e7"] ;
63 -> 77 ;
78 [label="gini = 0.0\nsamples = 114\nvalue = [0, 0, 0, 0, 0, 0, 114, 0, 0, 0]", fillcolor="#3c39e5"] ;
77 -> 78 ;
79 [label="gini = 0.0\nsamples = 7\nvalue = [0, 0, 7, 0, 0, 0, 0, 0, 0, 0]", fillcolor="#7be539"] ;
77 -> 79 ;
80 [label="X[60] <= 5.5\ngini = 0.86\nsamples = 791\nvalue = [4, 110, 92, 127, 110, 8, 2, 128, 120, 90]", fillcolor="#ffffff"] ;
26 -> 80 ;
81 [label="X[26] <= 10.5\ngini = 0.48\nsamples = 158\nvalue = [0, 8, 2, 4, 14, 3, 0, 112, 4, 11]", fillcolor="#c078ed"] ;
80 -> 81 ;
82 [label="X[53] <= 5.5\ngini = 0.21\nsamples = 115\nvalue = [0, 3, 2, 4, 1, 0, 0, 102, 3, 0]", fillcolor="#ae50e8"] ;
81 -> 82 ;
83 [label="X[37] <= 0.5\ngini = 0.123\nsamples = 109\nvalue = [0, 1, 0, 3, 1, 0, 0, 102, 2, 0]", fillcolor="#a946e7"] ;
82 -> 83 ;
84 [label="X[59] <= 13.5\ngini = 0.776\nsamples = 7\nvalue = [0, 1, 0, 2, 1, 0, 0, 1, 2, 0]", fillcolor="#ffffff"] ;
83 -> 84 ;
85 [label="X[5] <= 8.5\ngini = 0.72\nsamples = 5\nvalue = [0, 1, 0, 2, 1, 0, 0, 1, 0, 0]", fillcolor="#cef8d7"] ;
84 -> 85 ;
86 [label="X[1] <= 1.5\ngini = 0.667\nsamples = 3\nvalue = [0, 1, 0, 0, 1, 0, 0, 1, 0, 0]", fillcolor="#ffffff"] ;
85 -> 86 ;
87 [label="X[44] <= 9.5\ngini = 0.5\nsamples = 2\nvalue = [0, 1, 0, 0, 1, 0, 0, 0, 0, 0]", fillcolor="#ffffff"] ;
86 -> 87 ;
88 [label="gini = 0.0\nsamples = 1\nvalue = [0, 1, 0, 0, 0, 0, 0, 0, 0, 0]", fillcolor="#e2e539"] ;
87 -> 88 ;
89 [label="gini = 0.0\nsamples = 1\nvalue = [0, 0, 0, 0, 1, 0, 0, 0, 0, 0]", fillcolor="#39e5c5"] ;
87 -> 89 ;
90 [label="gini = 0.0\nsamples = 1\nvalue = [0, 0, 0, 0, 0, 0, 0, 1, 0, 0]", fillcolor="#a339e5"] ;
86 -> 90 ;
91 [label="gini = 0.0\nsamples = 2\nvalue = [0, 0, 0, 2, 0, 0, 0, 0, 0, 0]", fillcolor="#39e55e"] ;
85 -> 91 ;
92 [label="gini = 0.0\nsamples = 2\nvalue = [0, 0, 0, 0, 0, 0, 0, 0, 2, 0]", fillcolor="#e539c0"] ;
84 -> 92 ;
93 [label="X[51] <= 2.5\ngini = 0.019\nsamples = 102\nvalue = [0, 0, 0, 1, 0, 0, 0, 101, 0, 0]", fillcolor="#a43be5"] ;
83 -> 93 ;
94 [label="gini = 0.0\nsamples = 1\nvalue = [0, 0, 0, 1, 0, 0, 0, 0, 0, 0]", fillcolor="#39e55e"] ;
93 -> 94 ;
95 [label="gini = 0.0\nsamples = 101\nvalue = [0, 0, 0, 0, 0, 0, 0, 101, 0, 0]", fillcolor="#a339e5"] ;
93 -> 95 ;
96 [label="X[27] <= 1.0\ngini = 0.722\nsamples = 6\nvalue = [0, 2, 2, 1, 0, 0, 0, 0, 1, 0]", fillcolor="#ffffff"] ;
82 -> 96 ;
97 [label="gini = 0.0\nsamples = 2\nvalue = [0, 0, 2, 0, 0, 0, 0, 0, 0, 0]", fillcolor="#7be539"] ;
96 -> 97 ;
98 [label="X[53] <= 12.5\ngini = 0.625\nsamples = 4\nvalue = [0, 2, 0, 1, 0, 0, 0, 0, 1, 0]", fillcolor="#f5f6bd"] ;
96 -> 98 ;
99 [label="X[57] <= 1.5\ngini = 0.5\nsamples = 2\nvalue = [0, 0, 0, 1, 0, 0, 0, 0, 1, 0]", fillcolor="#ffffff"] ;
98 -> 99 ;
100 [label="gini = 0.0\nsamples = 1\nvalue = [0, 0, 0, 0, 0, 0, 0, 0, 1, 0]", fillcolor="#e539c0"] ;
99 -> 100 ;
101 [label="gini = 0.0\nsamples = 1\nvalue = [0, 0, 0, 1, 0, 0, 0, 0, 0, 0]", fillcolor="#39e55e"] ;
99 -> 101 ;
102 [label="gini = 0.0\nsamples = 2\nvalue = [0, 2, 0, 0, 0, 0, 0, 0, 0, 0]", fillcolor="#e2e539"] ;
98 -> 102 ;
103 [label="X[12] <= 7.0\ngini = 0.77\nsamples = 43\nvalue = [0, 5, 0, 0, 13, 3, 0, 10, 1, 11]", fillcolor="#f3fdfb"] ;
81 -> 103 ;
104 [label="X[4] <= 13.5\ngini = 0.46\nsamples = 19\nvalue = [0, 0, 0, 0, 13, 0, 0, 0, 1, 5]", fillcolor="#8ef0de"] ;
103 -> 104 ;
105 [label="gini = 0.0\nsamples = 13\nvalue = [0, 0, 0, 0, 13, 0, 0, 0, 0, 0]", fillcolor="#39e5c5"] ;
104 -> 105 ;
106 [label="X[20] <= 4.5\ngini = 0.278\nsamples = 6\nvalue = [0, 0, 0, 0, 0, 0, 0, 0, 1, 5]", fillcolor="#ea6179"] ;
104 -> 106 ;
107 [label="gini = 0.0\nsamples = 5\nvalue = [0, 0, 0, 0, 0, 0, 0, 0, 0, 5]", fillcolor="#e53958"] ;
106 -> 107 ;
108 [label="gini = 0.0\nsamples = 1\nvalue = [0, 0, 0, 0, 0, 0, 0, 0, 1, 0]", fillcolor="#e539c0"] ;
106 -> 108 ;
109 [label="X[22] <= 5.5\ngini = 0.705\nsamples = 24\nvalue = [0, 5, 0, 0, 0, 3, 0, 10, 0, 6]", fillcolor="#ebd3f9"] ;
103 -> 109 ;
110 [label="X[10] <= 7.0\ngini = 0.727\nsamples = 17\nvalue = [0, 5, 0, 0, 0, 3, 0, 3, 0, 6]", fillcolor="#fdeef1"] ;
109 -> 110 ;
111 [label="gini = 0.0\nsamples = 4\nvalue = [0, 4, 0, 0, 0, 0, 0, 0, 0, 0]", fillcolor="#e2e539"] ;
110 -> 111 ;
112 [label="X[18] <= 1.0\ngini = 0.675\nsamples = 13\nvalue = [0, 1, 0, 0, 0, 3, 0, 3, 0, 6]", fillcolor="#f7c4cd"] ;
110 -> 112 ;
113 [label="gini = 0.0\nsamples = 3\nvalue = [0, 0, 0, 0, 0, 0, 0, 3, 0, 0]", fillcolor="#a339e5"] ;
112 -> 113 ;
114 [label="X[59] <= 13.0\ngini = 0.54\nsamples = 10\nvalue = [0, 1, 0, 0, 0, 3, 0, 0, 0, 6]", fillcolor="#f4aab7"] ;
112 -> 114 ;
115 [label="gini = 0.0\nsamples = 6\nvalue = [0, 0, 0, 0, 0, 0, 0, 0, 0, 6]", fillcolor="#e53958"] ;
114 -> 115 ;
116 [label="X[5] <= 10.0\ngini = 0.375\nsamples = 4\nvalue = [0, 1, 0, 0, 0, 3, 0, 0, 0, 0]", fillcolor="#7bbeee"] ;
114 -> 116 ;
117 [label="gini = 0.0\nsamples = 3\nvalue = [0, 0, 0, 0, 0, 3, 0, 0, 0, 0]", fillcolor="#399de5"] ;
116 -> 117 ;
118 [label="gini = 0.0\nsamples = 1\nvalue = [0, 1, 0, 0, 0, 0, 0, 0, 0, 0]", fillcolor="#e2e539"] ;
116 -> 118 ;
119 [label="gini = 0.0\nsamples = 7\nvalue = [0, 0, 0, 0, 0, 0, 0, 7, 0, 0]", fillcolor="#a339e5"] ;
109 -> 119 ;
120 [label="X[33] <= 3.5\ngini = 0.843\nsamples = 633\nvalue = [4, 102, 90, 123, 96, 5, 2, 16, 116, 79]", fillcolor="#fcfffd"] ;
80 -> 120 ;
121 [label="X[43] <= 1.5\ngini = 0.81\nsamples = 512\nvalue = [2, 88, 90, 122, 3, 5, 0, 11, 113, 78]", fillcolor="#fbfefb"] ;
120 -> 121 ;
122 [label="X[26] <= 3.5\ngini = 0.629\nsamples = 214\nvalue = [0, 15, 2, 108, 0, 5, 0, 1, 13, 70]", fillcolor="#cbf8d5"] ;
121 -> 122 ;
123 [label="X[30] <= 2.5\ngini = 0.13\nsamples = 103\nvalue = [0, 2, 1, 96, 0, 0, 0, 0, 1, 3]", fillcolor="#47e769"] ;
122 -> 123 ;
124 [label="X[3] <= 5.5\ngini = 0.078\nsamples = 100\nvalue = [0, 2, 0, 96, 0, 0, 0, 0, 1, 1]", fillcolor="#41e665"] ;
123 -> 124 ;
125 [label="X[28] <= 15.0\ngini = 0.5\nsamples = 2\nvalue = [0, 1, 0, 0, 0, 0, 0, 0, 1, 0]", fillcolor="#ffffff"] ;
124 -> 125 ;
126 [label="gini = 0.0\nsamples = 1\nvalue = [0, 1, 0, 0, 0, 0, 0, 0, 0, 0]", fillcolor="#e2e539"] ;
125 -> 126 ;
127 [label="gini = 0.0\nsamples = 1\nvalue = [0, 0, 0, 0, 0, 0, 0, 0, 1, 0]", fillcolor="#e539c0"] ;
125 -> 127 ;
128 [label="X[62] <= 14.0\ngini = 0.04\nsamples = 98\nvalue = [0, 1, 0, 96, 0, 0, 0, 0, 0, 1]", fillcolor="#3de661"] ;
124 -> 128 ;
129 [label="X[4] <= 7.5\ngini = 0.02\nsamples = 97\nvalue = [0, 0, 0, 96, 0, 0, 0, 0, 0, 1]", fillcolor="#3be560"] ;
128 -> 129 ;
130 [label="X[12] <= 11.0\ngini = 0.5\nsamples = 2\nvalue = [0, 0, 0, 1, 0, 0, 0, 0, 0, 1]", fillcolor="#ffffff"] ;
129 -> 130 ;
131 [label="gini = 0.0\nsamples = 1\nvalue = [0, 0, 0, 1, 0, 0, 0, 0, 0, 0]", fillcolor="#39e55e"] ;
130 -> 131 ;
132 [label="gini = 0.0\nsamples = 1\nvalue = [0, 0, 0, 0, 0, 0, 0, 0, 0, 1]", fillcolor="#e53958"] ;
130 -> 132 ;
133 [label="gini = 0.0\nsamples = 95\nvalue = [0, 0, 0, 95, 0, 0, 0, 0, 0, 0]", fillcolor="#39e55e"] ;
129 -> 133 ;
134 [label="gini = 0.0\nsamples = 1\nvalue = [0, 1, 0, 0, 0, 0, 0, 0, 0, 0]", fillcolor="#e2e539"] ;
128 -> 134 ;
135 [label="X[14] <= 1.5\ngini = 0.444\nsamples = 3\nvalue = [0, 0, 1, 0, 0, 0, 0, 0, 0, 2]", fillcolor="#f29cac"] ;
123 -> 135 ;
136 [label="gini = 0.0\nsamples = 2\nvalue = [0, 0, 0, 0, 0, 0, 0, 0, 0, 2]", fillcolor="#e53958"] ;
135 -> 136 ;
137 [label="gini = 0.0\nsamples = 1\nvalue = [0, 0, 1, 0, 0, 0, 0, 0, 0, 0]", fillcolor="#7be539"] ;
135 -> 137 ;
138 [label="X[30] <= 0.5\ngini = 0.596\nsamples = 111\nvalue = [0, 13, 1, 12, 0, 5, 0, 1, 12, 67]", fillcolor="#f192a3"] ;
122 -> 138 ;
139 [label="X[42] <= 11.0\ngini = 0.787\nsamples = 45\nvalue = [0, 7, 1, 12, 0, 4, 0, 0, 10, 11]", fillcolor="#f9fefa"] ;
138 -> 139 ;
140 [label="X[10] <= 7.5\ngini = 0.72\nsamples = 34\nvalue = [0, 7, 1, 12, 0, 3, 0, 0, 0, 11]", fillcolor="#f6fef8"] ;
139 -> 140 ;
141 [label="X[20] <= 10.0\ngini = 0.219\nsamples = 8\nvalue = [0, 7, 0, 0, 0, 0, 0, 0, 0, 1]", fillcolor="#e6e955"] ;
140 -> 141 ;
142 [label="gini = 0.0\nsamples = 1\nvalue = [0, 0, 0, 0, 0, 0, 0, 0, 0, 1]", fillcolor="#e53958"] ;
141 -> 142 ;
143 [label="gini = 0.0\nsamples = 7\nvalue = [0, 7, 0, 0, 0, 0, 0, 0, 0, 0]", fillcolor="#e2e539"] ;
141 -> 143 ;
144 [label="X[45] <= 12.5\ngini = 0.624\nsamples = 26\nvalue = [0, 0, 1, 12, 0, 3, 0, 0, 0, 10]", fillcolor="#e6fceb"] ;
140 -> 144 ;
145 [label="X[21] <= 5.0\ngini = 0.609\nsamples = 16\nvalue = [0, 0, 1, 3, 0, 3, 0, 0, 0, 9]", fillcolor="#f3a4b2"] ;
144 -> 145 ;
146 [label="X[35] <= 3.0\ngini = 0.48\nsamples = 5\nvalue = [0, 0, 0, 2, 0, 3, 0, 0, 0, 0]", fillcolor="#bddef6"] ;
145 -> 146 ;
147 [label="gini = 0.0\nsamples = 3\nvalue = [0, 0, 0, 0, 0, 3, 0, 0, 0, 0]", fillcolor="#399de5"] ;
146 -> 147 ;
148 [label="gini = 0.0\nsamples = 2\nvalue = [0, 0, 0, 2, 0, 0, 0, 0, 0, 0]", fillcolor="#39e55e"] ;
146 -> 148 ;
149 [label="X[51] <= 8.0\ngini = 0.314\nsamples = 11\nvalue = [0, 0, 1, 1, 0, 0, 0, 0, 0, 9]", fillcolor="#ea6179"] ;
145 -> 149 ;
150 [label="gini = 0.0\nsamples = 9\nvalue = [0, 0, 0, 0, 0, 0, 0, 0, 0, 9]", fillcolor="#e53958"] ;
149 -> 150 ;
151 [label="X[44] <= 5.5\ngini = 0.5\nsamples = 2\nvalue = [0, 0, 1, 1, 0, 0, 0, 0, 0, 0]", fillcolor="#ffffff"] ;
149 -> 151 ;
152 [label="gini = 0.0\nsamples = 1\nvalue = [0, 0, 0, 1, 0, 0, 0, 0, 0, 0]", fillcolor="#39e55e"] ;
151 -> 152 ;
153 [label="gini = 0.0\nsamples = 1\nvalue = [0, 0, 1, 0, 0, 0, 0, 0, 0, 0]", fillcolor="#7be539"] ;
151 -> 153 ;
154 [label="X[41] <= 0.5\ngini = 0.18\nsamples = 10\nvalue = [0, 0, 0, 9, 0, 0, 0, 0, 0, 1]", fillcolor="#4fe870"] ;
144 -> 154 ;
155 [label="gini = 0.0\nsamples = 9\nvalue = [0, 0, 0, 9, 0, 0, 0, 0, 0, 0]", fillcolor="#39e55e"] ;
154 -> 155 ;
156 [label="gini = 0.0\nsamples = 1\nvalue = [0, 0, 0, 0, 0, 0, 0, 0, 0, 1]", fillcolor="#e53958"] ;
154 -> 156 ;
157 [label="X[44] <= 4.5\ngini = 0.165\nsamples = 11\nvalue = [0, 0, 0, 0, 0, 1, 0, 0, 10, 0]", fillcolor="#e84dc6"] ;
139 -> 157 ;
158 [label="gini = 0.0\nsamples = 1\nvalue = [0, 0, 0, 0, 0, 1, 0, 0, 0, 0]", fillcolor="#399de5"] ;
157 -> 158 ;
159 [label="gini = 0.0\nsamples = 10\nvalue = [0, 0, 0, 0, 0, 0, 0, 0, 10, 0]", fillcolor="#e539c0"] ;
157 -> 159 ;
160 [label="X[3] <= 0.5\ngini = 0.27\nsamples = 66\nvalue = [0, 6, 0, 0, 0, 1, 0, 1, 2, 56]", fillcolor="#e95a74"] ;
138 -> 160 ;
161 [label="X[53] <= 13.0\ngini = 0.408\nsamples = 7\nvalue = [0, 5, 0, 0, 0, 0, 0, 0, 0, 2]", fillcolor="#eeef88"] ;
160 -> 161 ;
162 [label="gini = 0.0\nsamples = 2\nvalue = [0, 0, 0, 0, 0, 0, 0, 0, 0, 2]", fillcolor="#e53958"] ;
161 -> 162 ;
163 [label="gini = 0.0\nsamples = 5\nvalue = [0, 5, 0, 0, 0, 0, 0, 0, 0, 0]", fillcolor="#e2e539"] ;
161 -> 163 ;
164 [label="X[21] <= 10.5\ngini = 0.16\nsamples = 59\nvalue = [0, 1, 0, 0, 0, 1, 0, 1, 2, 54]", fillcolor="#e74a67"] ;
160 -> 164 ;
165 [label="X[36] <= 14.0\ngini = 0.722\nsamples = 6\nvalue = [0, 0, 0, 0, 0, 1, 0, 1, 2, 2]", fillcolor="#ffffff"] ;
164 -> 165 ;
166 [label="X[51] <= 3.0\ngini = 0.625\nsamples = 4\nvalue = [0, 0, 0, 0, 0, 1, 0, 1, 0, 2]", fillcolor="#f6bdc7"] ;
165 -> 166 ;
167 [label="gini = 0.0\nsamples = 2\nvalue = [0, 0, 0, 0, 0, 0, 0, 0, 0, 2]", fillcolor="#e53958"] ;
166 -> 167 ;
168 [label="X[26] <= 15.0\ngini = 0.5\nsamples = 2\nvalue = [0, 0, 0, 0, 0, 1, 0, 1, 0, 0]", fillcolor="#ffffff"] ;
166 -> 168 ;
169 [label="gini = 0.0\nsamples = 1\nvalue = [0, 0, 0, 0, 0, 0, 0, 1, 0, 0]", fillcolor="#a339e5"] ;
168 -> 169 ;
170 [label="gini = 0.0\nsamples = 1\nvalue = [0, 0, 0, 0, 0, 1, 0, 0, 0, 0]", fillcolor="#399de5"] ;
168 -> 170 ;
171 [label="gini = 0.0\nsamples = 2\nvalue = [0, 0, 0, 0, 0, 0, 0, 0, 2, 0]", fillcolor="#e539c0"] ;
165 -> 171 ;
172 [label="X[27] <= 0.5\ngini = 0.037\nsamples = 53\nvalue = [0, 1, 0, 0, 0, 0, 0, 0, 0, 52]", fillcolor="#e63d5b"] ;
164 -> 172 ;
173 [label="gini = 0.0\nsamples = 1\nvalue = [0, 1, 0, 0, 0, 0, 0, 0, 0, 0]", fillcolor="#e2e539"] ;
172 -> 173 ;
174 [label="gini = 0.0\nsamples = 52\nvalue = [0, 0, 0, 0, 0, 0, 0, 0, 0, 52]", fillcolor="#e53958"] ;
172 -> 174 ;
175 [label="X[27] <= 8.5\ngini = 0.736\nsamples = 298\nvalue = [2, 73, 88, 14, 3, 0, 0, 10, 100, 8]", fillcolor="#fef4fb"] ;
121 -> 175 ;
176 [label="X[34] <= 5.5\ngini = 0.414\nsamples = 103\nvalue = [1, 3, 78, 3, 1, 0, 0, 7, 8, 2]", fillcolor="#9eec6d"] ;
175 -> 176 ;
177 [label="X[50] <= 0.5\ngini = 0.213\nsamples = 87\nvalue = [0, 3, 77, 3, 0, 0, 0, 3, 1, 0]", fillcolor="#8be851"] ;
176 -> 177 ;
178 [label="X[22] <= 1.5\ngini = 0.688\nsamples = 8\nvalue = [0, 3, 1, 1, 0, 0, 0, 3, 0, 0]", fillcolor="#ffffff"] ;
177 -> 178 ;
179 [label="X[20] <= 13.5\ngini = 0.56\nsamples = 5\nvalue = [0, 3, 1, 1, 0, 0, 0, 0, 0, 0]", fillcolor="#f0f29c"] ;
178 -> 179 ;
180 [label="X[20] <= 8.5\ngini = 0.5\nsamples = 2\nvalue = [0, 0, 1, 1, 0, 0, 0, 0, 0, 0]", fillcolor="#ffffff"] ;
179 -> 180 ;
181 [label="gini = 0.0\nsamples = 1\nvalue = [0, 0, 0, 1, 0, 0, 0, 0, 0, 0]", fillcolor="#39e55e"] ;
180 -> 181 ;
182 [label="gini = 0.0\nsamples = 1\nvalue = [0, 0, 1, 0, 0, 0, 0, 0, 0, 0]", fillcolor="#7be539"] ;
180 -> 182 ;
183 [label="gini = 0.0\nsamples = 3\nvalue = [0, 3, 0, 0, 0, 0, 0, 0, 0, 0]", fillcolor="#e2e539"] ;
179 -> 183 ;
184 [label="gini = 0.0\nsamples = 3\nvalue = [0, 0, 0, 0, 0, 0, 0, 3, 0, 0]", fillcolor="#a339e5"] ;
178 -> 184 ;
185 [label="X[45] <= 11.0\ngini = 0.074\nsamples = 79\nvalue = [0, 0, 76, 2, 0, 0, 0, 0, 1, 0]", fillcolor="#80e641"] ;
177 -> 185 ;
186 [label="gini = 0.0\nsamples = 75\nvalue = [0, 0, 75, 0, 0, 0, 0, 0, 0, 0]", fillcolor="#7be539"] ;
185 -> 186 ;
187 [label="X[50] <= 10.0\ngini = 0.625\nsamples = 4\nvalue = [0, 0, 1, 2, 0, 0, 0, 0, 1, 0]", fillcolor="#bdf6c9"] ;
185 -> 187 ;
188 [label="X[3] <= 12.5\ngini = 0.5\nsamples = 2\nvalue = [0, 0, 1, 0, 0, 0, 0, 0, 1, 0]", fillcolor="#ffffff"] ;
187 -> 188 ;
189 [label="gini = 0.0\nsamples = 1\nvalue = [0, 0, 0, 0, 0, 0, 0, 0, 1, 0]", fillcolor="#e539c0"] ;
188 -> 189 ;
190 [label="gini = 0.0\nsamples = 1\nvalue = [0, 0, 1, 0, 0, 0, 0, 0, 0, 0]", fillcolor="#7be539"] ;
188 -> 190 ;
191 [label="gini = 0.0\nsamples = 2\nvalue = [0, 0, 0, 2, 0, 0, 0, 0, 0, 0]", fillcolor="#39e55e"] ;
187 -> 191 ;
192 [label="X[37] <= 10.5\ngini = 0.719\nsamples = 16\nvalue = [1, 0, 1, 0, 1, 0, 0, 4, 7, 2]", fillcolor="#f8ceef"] ;
176 -> 192 ;
193 [label="gini = 0.0\nsamples = 7\nvalue = [0, 0, 0, 0, 0, 0, 0, 0, 7, 0]", fillcolor="#e539c0"] ;
192 -> 193 ;
194 [label="X[60] <= 9.5\ngini = 0.716\nsamples = 9\nvalue = [1, 0, 1, 0, 1, 0, 0, 4, 0, 2]", fillcolor="#e5c6f8"] ;
192 -> 194 ;
195 [label="gini = 0.0\nsamples = 4\nvalue = [0, 0, 0, 0, 0, 0, 0, 4, 0, 0]", fillcolor="#a339e5"] ;
194 -> 195 ;
196 [label="X[28] <= 10.5\ngini = 0.72\nsamples = 5\nvalue = [1, 0, 1, 0, 1, 0, 0, 0, 0, 2]", fillcolor="#f8ced5"] ;
194 -> 196 ;
197 [label="X[60] <= 10.5\ngini = 0.667\nsamples = 3\nvalue = [1, 0, 1, 0, 1, 0, 0, 0, 0, 0]", fillcolor="#ffffff"] ;
196 -> 197 ;
198 [label="gini = 0.0\nsamples = 1\nvalue = [1, 0, 0, 0, 0, 0, 0, 0, 0, 0]", fillcolor="#e58139"] ;
197 -> 198 ;
199 [label="X[29] <= 15.5\ngini = 0.5\nsamples = 2\nvalue = [0, 0, 1, 0, 1, 0, 0, 0, 0, 0]", fillcolor="#ffffff"] ;
197 -> 199 ;
200 [label="gini = 0.0\nsamples = 1\nvalue = [0, 0, 0, 0, 1, 0, 0, 0, 0, 0]", fillcolor="#39e5c5"] ;
199 -> 200 ;
201 [label="gini = 0.0\nsamples = 1\nvalue = [0, 0, 1, 0, 0, 0, 0, 0, 0, 0]", fillcolor="#7be539"] ;
199 -> 201 ;
202 [label="gini = 0.0\nsamples = 2\nvalue = [0, 0, 0, 0, 0, 0, 0, 0, 0, 2]", fillcolor="#e53958"] ;
196 -> 202 ;
203 [label="X[20] <= 13.5\ngini = 0.641\nsamples = 195\nvalue = [1, 70, 10, 11, 2, 0, 0, 3, 92, 6]", fillcolor="#fadcf4"] ;
175 -> 203 ;
204 [label="X[30] <= 5.5\ngini = 0.242\nsamples = 91\nvalue = [1, 0, 1, 2, 0, 0, 0, 3, 79, 5]", fillcolor="#e955c9"] ;
203 -> 204 ;
205 [label="X[50] <= 2.5\ngini = 0.136\nsamples = 84\nvalue = [0, 0, 1, 2, 0, 0, 0, 0, 78, 3]", fillcolor="#e748c5"] ;
204 -> 205 ;
206 [label="X[51] <= 10.5\ngini = 0.512\nsamples = 11\nvalue = [0, 0, 0, 1, 0, 0, 0, 0, 7, 3]", fillcolor="#f29ce0"] ;
205 -> 206 ;
207 [label="X[61] <= 6.5\ngini = 0.375\nsamples = 4\nvalue = [0, 0, 0, 1, 0, 0, 0, 0, 0, 3]", fillcolor="#ee7b90"] ;
206 -> 207 ;
208 [label="gini = 0.0\nsamples = 3\nvalue = [0, 0, 0, 0, 0, 0, 0, 0, 0, 3]", fillcolor="#e53958"] ;
207 -> 208 ;
209 [label="gini = 0.0\nsamples = 1\nvalue = [0, 0, 0, 1, 0, 0, 0, 0, 0, 0]", fillcolor="#39e55e"] ;
207 -> 209 ;
210 [label="gini = 0.0\nsamples = 7\nvalue = [0, 0, 0, 0, 0, 0, 0, 0, 7, 0]", fillcolor="#e539c0"] ;
206 -> 210 ;
211 [label="X[2] <= 14.5\ngini = 0.054\nsamples = 73\nvalue = [0, 0, 1, 1, 0, 0, 0, 0, 71, 0]", fillcolor="#e63ec2"] ;
205 -> 211 ;
212 [label="X[36] <= 5.0\ngini = 0.027\nsamples = 72\nvalue = [0, 0, 1, 0, 0, 0, 0, 0, 71, 0]", fillcolor="#e53cc1"] ;
211 -> 212 ;
213 [label="X[12] <= 10.5\ngini = 0.444\nsamples = 3\nvalue = [0, 0, 1, 0, 0, 0, 0, 0, 2, 0]", fillcolor="#f29ce0"] ;
212 -> 213 ;
214 [label="gini = 0.0\nsamples = 2\nvalue = [0, 0, 0, 0, 0, 0, 0, 0, 2, 0]", fillcolor="#e539c0"] ;
213 -> 214 ;
215 [label="gini = 0.0\nsamples = 1\nvalue = [0, 0, 1, 0, 0, 0, 0, 0, 0, 0]", fillcolor="#7be539"] ;
213 -> 215 ;
216 [label="gini = 0.0\nsamples = 69\nvalue = [0, 0, 0, 0, 0, 0, 0, 0, 69, 0]", fillcolor="#e539c0"] ;
212 -> 216 ;
217 [label="gini = 0.0\nsamples = 1\nvalue = [0, 0, 0, 1, 0, 0, 0, 0, 0, 0]", fillcolor="#39e55e"] ;
211 -> 217 ;
218 [label="X[5] <= 13.5\ngini = 0.694\nsamples = 7\nvalue = [1, 0, 0, 0, 0, 0, 0, 3, 1, 2]", fillcolor="#edd7fa"] ;
204 -> 218 ;
219 [label="X[11] <= 10.5\ngini = 0.625\nsamples = 4\nvalue = [1, 0, 0, 0, 0, 0, 0, 0, 1, 2]", fillcolor="#f6bdc7"] ;
218 -> 219 ;
220 [label="gini = 0.0\nsamples = 2\nvalue = [0, 0, 0, 0, 0, 0, 0, 0, 0, 2]", fillcolor="#e53958"] ;
219 -> 220 ;
221 [label="X[20] <= 1.5\ngini = 0.5\nsamples = 2\nvalue = [1, 0, 0, 0, 0, 0, 0, 0, 1, 0]", fillcolor="#ffffff"] ;
219 -> 221 ;
222 [label="gini = 0.0\nsamples = 1\nvalue = [1, 0, 0, 0, 0, 0, 0, 0, 0, 0]", fillcolor="#e58139"] ;
221 -> 222 ;
223 [label="gini = 0.0\nsamples = 1\nvalue = [0, 0, 0, 0, 0, 0, 0, 0, 1, 0]", fillcolor="#e539c0"] ;
221 -> 223 ;
224 [label="gini = 0.0\nsamples = 3\nvalue = [0, 0, 0, 0, 0, 0, 0, 3, 0, 0]", fillcolor="#a339e5"] ;
218 -> 224 ;
225 [label="X[10] <= 10.5\ngini = 0.516\nsamples = 104\nvalue = [0, 70, 9, 9, 2, 0, 0, 0, 13, 1]", fillcolor="#edef83"] ;
203 -> 225 ;
226 [label="X[41] <= 7.5\ngini = 0.179\nsamples = 73\nvalue = [0, 66, 0, 2, 2, 0, 0, 0, 3, 0]", fillcolor="#e5e84d"] ;
225 -> 226 ;
227 [label="X[19] <= 6.5\ngini = 0.133\nsamples = 71\nvalue = [0, 66, 0, 2, 0, 0, 0, 0, 3, 0]", fillcolor="#e4e748"] ;
226 -> 227 ;
228 [label="gini = 0.0\nsamples = 2\nvalue = [0, 0, 0, 2, 0, 0, 0, 0, 0, 0]", fillcolor="#39e55e"] ;
227 -> 228 ;
229 [label="X[28] <= 8.0\ngini = 0.083\nsamples = 69\nvalue = [0, 66, 0, 0, 0, 0, 0, 0, 3, 0]", fillcolor="#e3e642"] ;
227 -> 229 ;
230 [label="gini = 0.0\nsamples = 2\nvalue = [0, 0, 0, 0, 0, 0, 0, 0, 2, 0]", fillcolor="#e539c0"] ;
229 -> 230 ;
231 [label="X[52] <= 9.0\ngini = 0.029\nsamples = 67\nvalue = [0, 66, 0, 0, 0, 0, 0, 0, 1, 0]", fillcolor="#e2e53c"] ;
229 -> 231 ;
232 [label="X[61] <= 8.5\ngini = 0.444\nsamples = 3\nvalue = [0, 2, 0, 0, 0, 0, 0, 0, 1, 0]", fillcolor="#f0f29c"] ;
231 -> 232 ;
233 [label="gini = 0.0\nsamples = 2\nvalue = [0, 2, 0, 0, 0, 0, 0, 0, 0, 0]", fillcolor="#e2e539"] ;
232 -> 233 ;
234 [label="gini = 0.0\nsamples = 1\nvalue = [0, 0, 0, 0, 0, 0, 0, 0, 1, 0]", fillcolor="#e539c0"] ;
232 -> 234 ;
235 [label="gini = 0.0\nsamples = 64\nvalue = [0, 64, 0, 0, 0, 0, 0, 0, 0, 0]", fillcolor="#e2e539"] ;
231 -> 235 ;
236 [label="gini = 0.0\nsamples = 2\nvalue = [0, 0, 0, 0, 2, 0, 0, 0, 0, 0]", fillcolor="#39e5c5"] ;
226 -> 236 ;
237 [label="X[50] <= 5.5\ngini = 0.743\nsamples = 31\nvalue = [0, 4, 9, 7, 0, 0, 0, 0, 10, 1]", fillcolor="#fef6fc"] ;
225 -> 237 ;
238 [label="gini = 0.0\nsamples = 7\nvalue = [0, 0, 0, 7, 0, 0, 0, 0, 0, 0]", fillcolor="#39e55e"] ;
237 -> 238 ;
239 [label="X[54] <= 0.5\ngini = 0.656\nsamples = 24\nvalue = [0, 4, 9, 0, 0, 0, 0, 0, 10, 1]", fillcolor="#fdf2fb"] ;
237 -> 239 ;
240 [label="X[61] <= 3.5\ngini = 0.426\nsamples = 13\nvalue = [0, 4, 0, 0, 0, 0, 0, 0, 9, 0]", fillcolor="#f191dc"] ;
239 -> 240 ;
241 [label="gini = 0.0\nsamples = 8\nvalue = [0, 0, 0, 0, 0, 0, 0, 0, 8, 0]", fillcolor="#e539c0"] ;
240 -> 241 ;
242 [label="X[30] <= 1.0\ngini = 0.32\nsamples = 5\nvalue = [0, 4, 0, 0, 0, 0, 0, 0, 1, 0]", fillcolor="#e9ec6a"] ;
240 -> 242 ;
243 [label="gini = 0.0\nsamples = 4\nvalue = [0, 4, 0, 0, 0, 0, 0, 0, 0, 0]", fillcolor="#e2e539"] ;
242 -> 243 ;
244 [label="gini = 0.0\nsamples = 1\nvalue = [0, 0, 0, 0, 0, 0, 0, 0, 1, 0]", fillcolor="#e539c0"] ;
242 -> 244 ;
245 [label="X[13] <= 10.0\ngini = 0.314\nsamples = 11\nvalue = [0, 0, 9, 0, 0, 0, 0, 0, 1, 1]", fillcolor="#95ea61"] ;
239 -> 245 ;
246 [label="gini = 0.0\nsamples = 9\nvalue = [0, 0, 9, 0, 0, 0, 0, 0, 0, 0]", fillcolor="#7be539"] ;
245 -> 246 ;
247 [label="X[17] <= 0.5\ngini = 0.5\nsamples = 2\nvalue = [0, 0, 0, 0, 0, 0, 0, 0, 1, 1]", fillcolor="#ffffff"] ;
245 -> 247 ;
248 [label="gini = 0.0\nsamples = 1\nvalue = [0, 0, 0, 0, 0, 0, 0, 0, 1, 0]", fillcolor="#e539c0"] ;
247 -> 248 ;
249 [label="gini = 0.0\nsamples = 1\nvalue = [0, 0, 0, 0, 0, 0, 0, 0, 0, 1]", fillcolor="#e53958"] ;
247 -> 249 ;
250 [label="X[13] <= 9.5\ngini = 0.393\nsamples = 121\nvalue = [2, 14, 0, 1, 93, 0, 2, 5, 3, 1]", fillcolor="#6decd4"] ;
120 -> 250 ;
251 [label="X[10] <= 10.5\ngini = 0.103\nsamples = 93\nvalue = [0, 3, 0, 0, 88, 0, 1, 0, 0, 1]", fillcolor="#44e6c8"] ;
250 -> 251 ;
252 [label="X[44] <= 7.0\ngini = 0.044\nsamples = 90\nvalue = [0, 1, 0, 0, 88, 0, 0, 0, 0, 1]", fillcolor="#3de6c6"] ;
251 -> 252 ;
253 [label="gini = 0.0\nsamples = 1\nvalue = [0, 0, 0, 0, 0, 0, 0, 0, 0, 1]", fillcolor="#e53958"] ;
252 -> 253 ;
254 [label="X[34] <= 8.5\ngini = 0.022\nsamples = 89\nvalue = [0, 1, 0, 0, 88, 0, 0, 0, 0, 0]", fillcolor="#3be5c6"] ;
252 -> 254 ;
255 [label="gini = 0.0\nsamples = 1\nvalue = [0, 1, 0, 0, 0, 0, 0, 0, 0, 0]", fillcolor="#e2e539"] ;
254 -> 255 ;
256 [label="gini = 0.0\nsamples = 88\nvalue = [0, 0, 0, 0, 88, 0, 0, 0, 0, 0]", fillcolor="#39e5c5"] ;
254 -> 256 ;
257 [label="X[59] <= 14.5\ngini = 0.444\nsamples = 3\nvalue = [0, 2, 0, 0, 0, 0, 1, 0, 0, 0]", fillcolor="#f0f29c"] ;
251 -> 257 ;
258 [label="gini = 0.0\nsamples = 2\nvalue = [0, 2, 0, 0, 0, 0, 0, 0, 0, 0]", fillcolor="#e2e539"] ;
257 -> 258 ;
259 [label="gini = 0.0\nsamples = 1\nvalue = [0, 0, 0, 0, 0, 0, 1, 0, 0, 0]", fillcolor="#3c39e5"] ;
257 -> 259 ;
260 [label="X[27] <= 14.0\ngini = 0.763\nsamples = 28\nvalue = [2, 11, 0, 1, 5, 0, 1, 5, 3, 0]", fillcolor="#f7f8cb"] ;
250 -> 260 ;
261 [label="X[59] <= 7.5\ngini = 0.747\nsamples = 15\nvalue = [2, 0, 0, 1, 5, 0, 1, 5, 1, 0]", fillcolor="#ffffff"] ;
260 -> 261 ;
262 [label="gini = 0.0\nsamples = 5\nvalue = [0, 0, 0, 0, 5, 0, 0, 0, 0, 0]", fillcolor="#39e5c5"] ;
261 -> 262 ;
263 [label="X[50] <= 1.5\ngini = 0.68\nsamples = 10\nvalue = [2, 0, 0, 1, 0, 0, 1, 5, 1, 0]", fillcolor="#dcb5f5"] ;
261 -> 263 ;
264 [label="gini = 0.0\nsamples = 5\nvalue = [0, 0, 0, 0, 0, 0, 0, 5, 0, 0]", fillcolor="#a339e5"] ;
263 -> 264 ;
265 [label="X[19] <= 12.0\ngini = 0.72\nsamples = 5\nvalue = [2, 0, 0, 1, 0, 0, 1, 0, 1, 0]", fillcolor="#f8e0ce"] ;
263 -> 265 ;
266 [label="X[17] <= 1.0\ngini = 0.667\nsamples = 3\nvalue = [0, 0, 0, 1, 0, 0, 1, 0, 1, 0]", fillcolor="#ffffff"] ;
265 -> 266 ;
267 [label="X[61] <= 8.0\ngini = 0.5\nsamples = 2\nvalue = [0, 0, 0, 1, 0, 0, 0, 0, 1, 0]", fillcolor="#ffffff"] ;
266 -> 267 ;
268 [label="gini = 0.0\nsamples = 1\nvalue = [0, 0, 0, 0, 0, 0, 0, 0, 1, 0]", fillcolor="#e539c0"] ;
267 -> 268 ;
269 [label="gini = 0.0\nsamples = 1\nvalue = [0, 0, 0, 1, 0, 0, 0, 0, 0, 0]", fillcolor="#39e55e"] ;
267 -> 269 ;
270 [label="gini = 0.0\nsamples = 1\nvalue = [0, 0, 0, 0, 0, 0, 1, 0, 0, 0]", fillcolor="#3c39e5"] ;
266 -> 270 ;
271 [label="gini = 0.0\nsamples = 2\nvalue = [2, 0, 0, 0, 0, 0, 0, 0, 0, 0]", fillcolor="#e58139"] ;
265 -> 271 ;
272 [label="X[12] <= 11.0\ngini = 0.26\nsamples = 13\nvalue = [0, 11, 0, 0, 0, 0, 0, 0, 2, 0]", fillcolor="#e7ea5d"] ;
260 -> 272 ;
273 [label="gini = 0.0\nsamples = 2\nvalue = [0, 0, 0, 0, 0, 0, 0, 0, 2, 0]", fillcolor="#e539c0"] ;
272 -> 273 ;
274 [label="gini = 0.0\nsamples = 11\nvalue = [0, 11, 0, 0, 0, 0, 0, 0, 0, 0]", fillcolor="#e2e539"] ;
272 -> 274 ;
}